<?xml version="1.0" ?>

<BIF VERSION="0.3">
<NETWORK>

<!-- Variables -->
<VARIABLE TYPE="nature">
	<NAME>age</NAME>
	<PROPERTY>Age</PROPERTY>
	<OUTCOME>27-44</OUTCOME>
	<OUTCOME>45-60</OUTCOME>
	<OUTCOME>61-77</OUTCOME>
</VARIABLE>

<VARIABLE TYPE="nature">
	<NAME>chol</NAME>
	<PROPERTY>Cholesterol</PROPERTY>
	<OUTCOME>1-200</OUTCOME>
	<OUTCOME>201-240</OUTCOME>
	<OUTCOME>241-603</OUTCOME>
</VARIABLE>

<VARIABLE TYPE="nature">
	<NAME>bp</NAME>
	<PROPERTY>Resting Blood Pressure</PROPERTY>
	<OUTCOME>0-120</OUTCOME>
	<OUTCOME>121-139</OUTCOME>
	<OUTCOME>140-200</OUTCOME>
</VARIABLE>

<VARIABLE TYPE="nature">
	<NAME>mhr</NAME>
	<PROPERTY>Max Heart Rate Achieved</PROPERTY>
	<OUTCOME>60-100</OUTCOME>
	<OUTCOME>101-175</OUTCOME>
	<OUTCOME>176-220</OUTCOME>
</VARIABLE>

<VARIABLE TYPE="nature">
	<NAME>ecg</NAME>
	<PROPERTY>Resting ECG</PROPERTY>
	<OUTCOME>Normal</OUTCOME>
	<OUTCOME>ST</OUTCOME>
	<OUTCOME>LVH</OUTCOME>
</VARIABLE>

<VARIABLE TYPE="nature">
	<NAME>sex</NAME>
	<PROPERTY>Sex</PROPERTY>
	<OUTCOME>F</OUTCOME>
	<OUTCOME>M</OUTCOME>
</VARIABLE>

<VARIABLE TYPE="nature">
	<NAME>hd</NAME>
	<PROPERTY>Heart Disease</PROPERTY>
	<OUTCOME>0</OUTCOME>
	<OUTCOME>1</OUTCOME>
</VARIABLE>

<VARIABLE TYPE="nature">
	<NAME>cp</NAME>
	<PROPERTY>Chest Pain</PROPERTY>
	<OUTCOME>TA</OUTCOME>
	<OUTCOME>ATA</OUTCOME>
	<OUTCOME>NAP</OUTCOME>
	<OUTCOME>ASY</OUTCOME>
</VARIABLE>

<VARIABLE TYPE="decision">
	<NAME>VisitDoctor</NAME>
	<PROPERTY>VisitDoctor</PROPERTY>
	<OUTCOME>Visit Doctor</OUTCOME>
	<OUTCOME>Don't Visit Doctor</OUTCOME>
</VARIABLE>

<VARIABLE TYPE="utility">
	<NAME>U</NAME>
	<PROPERTY>Utility</PROPERTY>
	<OUTCOME>0</OUTCOME>
</VARIABLE>

<!-- Probability distributions -->
<DEFINITION>
	<FOR>age</FOR>
	<TABLE>0.191841 0.241455 0.566703 </TABLE>
</DEFINITION>
<DEFINITION>
	<FOR>chol</FOR>
	<TABLE>0.19403 0.327001 0.478969 </TABLE>
</DEFINITION>
<DEFINITION>
	<FOR>bp</FOR>
	<GIVEN>age</GIVEN>
	<GIVEN>chol</GIVEN>
	<TABLE>0.514286 0.257143 0.228571 0.342105 0.302632 0.355263 0.103448 0.310345 0.586207 0.538462 0.282051 0.179487 0.282051 0.434211 0.276316 0.22 0.24 0.54 0.508197 0.245902 0.245902 0.227979 0.378238 0.393782 0.22449 0.255102 0.520408 </TABLE>
</DEFINITION>
<DEFINITION>
	<FOR>mhr</FOR>
	<GIVEN>bp</GIVEN>
	<GIVEN>age</GIVEN>
	<TABLE>0.012048 0.807229 0.180723 0.087838 0.871622 0.040541 0.218182 0.781818 0 0.025641 0.769231 0.205128 0.096257 0.860963 0.042781 0.088235 0.911765 0 0.030303 0.757576 0.212121 0.097561 0.871951 0.030488 0.120968 0.870968 0.008065 </TABLE>
</DEFINITION>
<DEFINITION>
	<FOR>ecg</FOR>
	<TABLE>0.601985 0.206174 0.191841 </TABLE>
</DEFINITION>
<DEFINITION>
	<FOR>sex</FOR>
	<GIVEN>hd</GIVEN>
	<TABLE>0.35 0.65 0.098619 0.901381 </TABLE>
</DEFINITION>
<DEFINITION>
	<FOR>hd</FOR>
	<GIVEN>ecg</GIVEN>
	<GIVEN>mhr</GIVEN>
	<TABLE>0.444444 0.555556 0.392638 0.607362 0.866667 0.133333 0.211538 0.788462 0.485961 0.514039 0.833333 0.166667 0.136364 0.863636 0.346939 0.653061 0.8 0.2 </TABLE>
</DEFINITION>
<DEFINITION>
	<FOR>cp</FOR>
	<GIVEN>hd</GIVEN>
	<TABLE>0.255 0.3675 0.3175 0.06 0.771203 0.047337 0.142012 0.039448 </TABLE>
</DEFINITION>
<DEFINITION>
	<FOR>U</FOR>
	<GIVEN>hd</GIVEN>
	<GIVEN>VisitDoctor</GIVEN>
	<TABLE>-22100 -50000 -1100 0 </TABLE>
</DEFINITION>

</NETWORK>
</BIF>
